Language model created by QuickLM on Mon May 28 11:32:56 EDT 2018
Copyright (c) 1996-2010 Carnegie Mellon University and Alexander I. Rudnicky

The model is in standard ARPA format, designed by Doug Paul while he was at MITRE.

The code that was used to produce this language model is available in Open Source.
Please visit http://www.speech.cs.cmu.edu/tools/ for more information

The (fixed) discount mass is 0.5. The backoffs are computed using the ratio method.
This model based on a corpus of 121 sentences and 123 words

\data\
ngram 1=123
ngram 2=242
ngram 3=122

\1-grams:
-0.7793 </s> -0.3010
-0.7793 <s> -0.2214
-2.8621 A -0.2221
-2.8621 AND -0.2221
-2.8621 APOSTROPHE -0.2221
-2.8621 AT -0.2221
-2.8621 AUTO -0.2221
-2.8621 B -0.2221
-2.8621 BACKSLASH -0.2221
-2.8621 BACKSPACE -0.2221
-2.8621 BOOL -0.2221
-2.8621 BREAK -0.2221
-2.8621 C -0.2221
-2.8621 CAPS -0.2221
-2.8621 CASE -0.2221
-2.8621 CATCH -0.2221
-2.8621 CLASS -0.2221
-2.8621 COLON -0.2221
-2.8621 COMMA -0.2221
-2.8621 CONST -0.2221
-2.8621 CONTINUE -0.2221
-2.8621 CUT -0.2221
-2.8621 D -0.2221
-2.8621 DEFINE -0.2221
-2.8621 DELETE -0.2221
-2.8621 DIVIDE -0.2221
-2.8621 DO -0.2221
-2.8621 DOLLAR -0.2221
-2.8621 DOT -0.2221
-2.8621 DOUBLE -0.2221
-2.8621 DOWN -0.2221
-2.8621 E -0.2221
-2.8621 EIGHT -0.2221
-2.8621 ELSE -0.2221
-2.8621 ENDIF -0.2221
-2.8621 EQUAL -0.2221
-2.8621 EXCLUSIVE -0.2998
-2.8621 EXTERN -0.2221
-2.8621 F -0.2221
-2.8621 FALSE -0.2221
-2.8621 FIVE -0.2221
-2.8621 FLOAT -0.2221
-2.8621 FOR -0.2221
-2.8621 FOUR -0.2221
-2.8621 FRIEND -0.2221
-2.8621 FUNCTION -0.2221
-2.8621 G -0.2221
-2.8621 H -0.2221
-2.8621 HASHTAG -0.2221
-2.8621 I -0.2221
-2.8621 IF -0.2221
-2.8621 IFDEF -0.2221
-2.8621 INCLUDE -0.2221
-2.8621 INLINE -0.2221
-2.8621 INT -0.2221
-2.8621 J -0.2221
-2.8621 K -0.2221
-2.8621 L -0.2221
-2.8621 LEFT -0.2221
-2.8621 LEFT_BIG_BRACKET -0.2221
-2.8621 LEFT_BRACKET -0.2221
-2.8621 LEFT_SQUARE_BRACKET -0.2221
-2.8621 LESS -0.2221
-2.8621 LONG -0.2221
-2.8621 M -0.2221
-2.8621 MARK -0.2221
-2.8621 MODEL -0.2221
-2.8621 MORE -0.2221
-2.8621 MULTIPLY -0.2221
-2.8621 N -0.2221
-2.8621 NEGATE -0.2221
-2.8621 NEW -0.2221
-2.8621 NINE -0.2221
-2.8621 O -0.2221
-2.8621 ONE -0.2221
-2.8621 OPERATOR -0.2221
-2.5611 OR -0.2221
-2.8621 P -0.2221
-2.8621 PLUS -0.2221
-2.8621 PRAVITE -0.2221
-2.8621 PUBLIC -0.2221
-2.8621 Q -0.2221
-2.8621 QUESTION -0.2221
-2.8621 R -0.2221
-2.8621 RETURN -0.2221
-2.8621 RIGHT -0.2221
-2.8621 RIGHT_BIG_BRACKET -0.2221
-2.8621 RIGHT_BRACKET -0.2221
-2.8621 RIGHT_SQUARE_BRACKET -0.2221
-2.8621 S -0.2221
-2.8621 SEMICOLON -0.2221
-2.8621 SEVEN -0.2221
-2.8621 SHORT -0.2221
-2.8621 SIX -0.2221
-2.8621 SIZEOF -0.2221
-2.8621 SIZE_T -0.2221
-2.8621 SPACE -0.2221
-2.8621 STATIC -0.2221
-2.8621 STRING -0.2221
-2.8621 STRUCT -0.2221
-2.8621 SWITCH -0.2221
-2.8621 T -0.2221
-2.8621 TAB -0.2221
-2.8621 TEMPLATE -0.2221
-2.8621 TEN -0.2221
-2.8621 THIS -0.2221
-2.8621 THREE -0.2221
-2.8621 THROW -0.2221
-2.8621 TRUE -0.2221
-2.8621 TWO -0.2221
-2.8621 TYPEDEF -0.2221
-2.8621 U -0.2221
-2.8621 UNDERLINE -0.2221
-2.8621 UNSIGNED -0.2221
-2.8621 UP -0.2221
-2.8621 V -0.2221
-2.8621 VARIABLE -0.2221
-2.8621 VOID -0.2221
-2.8621 W -0.2221
-2.8621 WHILE -0.2221
-2.8621 X -0.2221
-2.8621 Y -0.2221
-2.8621 Z -0.2221

\2-grams:
-2.3838 <s> A 0.0000
-2.3838 <s> AND 0.0000
-2.3838 <s> APOSTROPHE 0.0000
-2.3838 <s> AT 0.0000
-2.3838 <s> AUTO 0.0000
-2.3838 <s> B 0.0000
-2.3838 <s> BACKSLASH 0.0000
-2.3838 <s> BACKSPACE 0.0000
-2.3838 <s> BOOL 0.0000
-2.3838 <s> BREAK 0.0000
-2.3838 <s> C 0.0000
-2.3838 <s> CAPS 0.0000
-2.3838 <s> CASE 0.0000
-2.3838 <s> CATCH 0.0000
-2.3838 <s> CLASS 0.0000
-2.3838 <s> COLON 0.0000
-2.3838 <s> COMMA 0.0000
-2.3838 <s> CONST 0.0000
-2.3838 <s> CONTINUE 0.0000
-2.3838 <s> CUT 0.0000
-2.3838 <s> D 0.0000
-2.3838 <s> DEFINE 0.0000
-2.3838 <s> DELETE 0.0000
-2.3838 <s> DIVIDE 0.0000
-2.3838 <s> DO 0.0000
-2.3838 <s> DOLLAR 0.0000
-2.3838 <s> DOT 0.0000
-2.3838 <s> DOUBLE 0.0000
-2.3838 <s> DOWN 0.0000
-2.3838 <s> E 0.0000
-2.3838 <s> EIGHT 0.0000
-2.3838 <s> ELSE 0.0000
-2.3838 <s> ENDIF 0.0000
-2.3838 <s> EQUAL 0.0000
-2.3838 <s> EXCLUSIVE 0.0000
-2.3838 <s> EXTERN 0.0000
-2.3838 <s> F 0.0000
-2.3838 <s> FALSE 0.0000
-2.3838 <s> FIVE 0.0000
-2.3838 <s> FLOAT 0.0000
-2.3838 <s> FOR 0.0000
-2.3838 <s> FOUR 0.0000
-2.3838 <s> FRIEND 0.0000
-2.3838 <s> FUNCTION 0.0000
-2.3838 <s> G 0.0000
-2.3838 <s> H 0.0000
-2.3838 <s> HASHTAG 0.0000
-2.3838 <s> I 0.0000
-2.3838 <s> IF 0.0000
-2.3838 <s> IFDEF 0.0000
-2.3838 <s> INCLUDE 0.0000
-2.3838 <s> INLINE 0.0000
-2.3838 <s> INT 0.0000
-2.3838 <s> J 0.0000
-2.3838 <s> K 0.0000
-2.3838 <s> L 0.0000
-2.3838 <s> LEFT 0.0000
-2.3838 <s> LEFT_BIG_BRACKET 0.0000
-2.3838 <s> LEFT_BRACKET 0.0000
-2.3838 <s> LEFT_SQUARE_BRACKET 0.0000
-2.3838 <s> LESS 0.0000
-2.3838 <s> LONG 0.0000
-2.3838 <s> M 0.0000
-2.3838 <s> MARK 0.0000
-2.3838 <s> MODEL 0.0000
-2.3838 <s> MORE 0.0000
-2.3838 <s> MULTIPLY 0.0000
-2.3838 <s> N 0.0000
-2.3838 <s> NEGATE 0.0000
-2.3838 <s> NEW 0.0000
-2.3838 <s> NINE 0.0000
-2.3838 <s> O 0.0000
-2.3838 <s> ONE 0.0000
-2.3838 <s> OPERATOR 0.0000
-2.3838 <s> OR 0.0000
-2.3838 <s> P 0.0000
-2.3838 <s> PLUS 0.0000
-2.3838 <s> PRAVITE 0.0000
-2.3838 <s> PUBLIC 0.0000
-2.3838 <s> Q 0.0000
-2.3838 <s> QUESTION 0.0000
-2.3838 <s> R 0.0000
-2.3838 <s> RETURN 0.0000
-2.3838 <s> RIGHT 0.0000
-2.3838 <s> RIGHT_BIG_BRACKET 0.0000
-2.3838 <s> RIGHT_BRACKET 0.0000
-2.3838 <s> RIGHT_SQUARE_BRACKET 0.0000
-2.3838 <s> S 0.0000
-2.3838 <s> SEMICOLON 0.0000
-2.3838 <s> SEVEN 0.0000
-2.3838 <s> SHORT 0.0000
-2.3838 <s> SIX 0.0000
-2.3838 <s> SIZEOF 0.0000
-2.3838 <s> SIZE_T 0.0000
-2.3838 <s> SPACE 0.0000
-2.3838 <s> STATIC 0.0000
-2.3838 <s> STRING 0.0000
-2.3838 <s> STRUCT 0.0000
-2.3838 <s> SWITCH 0.0000
-2.3838 <s> T 0.0000
-2.3838 <s> TAB 0.0000
-2.3838 <s> TEMPLATE 0.0000
-2.3838 <s> TEN 0.0000
-2.3838 <s> THIS 0.0000
-2.3838 <s> THREE 0.0000
-2.3838 <s> THROW 0.0000
-2.3838 <s> TRUE 0.0000
-2.3838 <s> TWO 0.0000
-2.3838 <s> TYPEDEF 0.0000
-2.3838 <s> U 0.0000
-2.3838 <s> UNDERLINE 0.0000
-2.3838 <s> UNSIGNED 0.0000
-2.3838 <s> UP 0.0000
-2.3838 <s> V 0.0000
-2.3838 <s> VARIABLE 0.0000
-2.3838 <s> VOID 0.0000
-2.3838 <s> W 0.0000
-2.3838 <s> WHILE 0.0000
-2.3838 <s> X 0.0000
-2.3838 <s> Y 0.0000
-2.3838 <s> Z 0.0000
-0.3010 A </s> -0.3010
-0.3010 AND </s> -0.3010
-0.3010 APOSTROPHE </s> -0.3010
-0.3010 AT </s> -0.3010
-0.3010 AUTO </s> -0.3010
-0.3010 B </s> -0.3010
-0.3010 BACKSLASH </s> -0.3010
-0.3010 BACKSPACE </s> -0.3010
-0.3010 BOOL </s> -0.3010
-0.3010 BREAK </s> -0.3010
-0.3010 C </s> -0.3010
-0.3010 CAPS </s> -0.3010
-0.3010 CASE </s> -0.3010
-0.3010 CATCH </s> -0.3010
-0.3010 CLASS </s> -0.3010
-0.3010 COLON </s> -0.3010
-0.3010 COMMA </s> -0.3010
-0.3010 CONST </s> -0.3010
-0.3010 CONTINUE </s> -0.3010
-0.3010 CUT </s> -0.3010
-0.3010 D </s> -0.3010
-0.3010 DEFINE </s> -0.3010
-0.3010 DELETE </s> -0.3010
-0.3010 DIVIDE </s> -0.3010
-0.3010 DO </s> -0.3010
-0.3010 DOLLAR </s> -0.3010
-0.3010 DOT </s> -0.3010
-0.3010 DOUBLE </s> -0.3010
-0.3010 DOWN </s> -0.3010
-0.3010 E </s> -0.3010
-0.3010 EIGHT </s> -0.3010
-0.3010 ELSE </s> -0.3010
-0.3010 ENDIF </s> -0.3010
-0.3010 EQUAL </s> -0.3010
-0.3010 EXCLUSIVE OR 0.0000
-0.3010 EXTERN </s> -0.3010
-0.3010 F </s> -0.3010
-0.3010 FALSE </s> -0.3010
-0.3010 FIVE </s> -0.3010
-0.3010 FLOAT </s> -0.3010
-0.3010 FOR </s> -0.3010
-0.3010 FOUR </s> -0.3010
-0.3010 FRIEND </s> -0.3010
-0.3010 FUNCTION </s> -0.3010
-0.3010 G </s> -0.3010
-0.3010 H </s> -0.3010
-0.3010 HASHTAG </s> -0.3010
-0.3010 I </s> -0.3010
-0.3010 IF </s> -0.3010
-0.3010 IFDEF </s> -0.3010
-0.3010 INCLUDE </s> -0.3010
-0.3010 INLINE </s> -0.3010
-0.3010 INT </s> -0.3010
-0.3010 J </s> -0.3010
-0.3010 K </s> -0.3010
-0.3010 L </s> -0.3010
-0.3010 LEFT </s> -0.3010
-0.3010 LEFT_BIG_BRACKET </s> -0.3010
-0.3010 LEFT_BRACKET </s> -0.3010
-0.3010 LEFT_SQUARE_BRACKET </s> -0.3010
-0.3010 LESS </s> -0.3010
-0.3010 LONG </s> -0.3010
-0.3010 M </s> -0.3010
-0.3010 MARK </s> -0.3010
-0.3010 MODEL </s> -0.3010
-0.3010 MORE </s> -0.3010
-0.3010 MULTIPLY </s> -0.3010
-0.3010 N </s> -0.3010
-0.3010 NEGATE </s> -0.3010
-0.3010 NEW </s> -0.3010
-0.3010 NINE </s> -0.3010
-0.3010 O </s> -0.3010
-0.3010 ONE </s> -0.3010
-0.3010 OPERATOR </s> -0.3010
-0.3010 OR </s> -0.3010
-0.3010 P </s> -0.3010
-0.3010 PLUS </s> -0.3010
-0.3010 PRAVITE </s> -0.3010
-0.3010 PUBLIC </s> -0.3010
-0.3010 Q </s> -0.3010
-0.3010 QUESTION </s> -0.3010
-0.3010 R </s> -0.3010
-0.3010 RETURN </s> -0.3010
-0.3010 RIGHT </s> -0.3010
-0.3010 RIGHT_BIG_BRACKET </s> -0.3010
-0.3010 RIGHT_BRACKET </s> -0.3010
-0.3010 RIGHT_SQUARE_BRACKET </s> -0.3010
-0.3010 S </s> -0.3010
-0.3010 SEMICOLON </s> -0.3010
-0.3010 SEVEN </s> -0.3010
-0.3010 SHORT </s> -0.3010
-0.3010 SIX </s> -0.3010
-0.3010 SIZEOF </s> -0.3010
-0.3010 SIZE_T </s> -0.3010
-0.3010 SPACE </s> -0.3010
-0.3010 STATIC </s> -0.3010
-0.3010 STRING </s> -0.3010
-0.3010 STRUCT </s> -0.3010
-0.3010 SWITCH </s> -0.3010
-0.3010 T </s> -0.3010
-0.3010 TAB </s> -0.3010
-0.3010 TEMPLATE </s> -0.3010
-0.3010 TEN </s> -0.3010
-0.3010 THIS </s> -0.3010
-0.3010 THREE </s> -0.3010
-0.3010 THROW </s> -0.3010
-0.3010 TRUE </s> -0.3010
-0.3010 TWO </s> -0.3010
-0.3010 TYPEDEF </s> -0.3010
-0.3010 U </s> -0.3010
-0.3010 UNDERLINE </s> -0.3010
-0.3010 UNSIGNED </s> -0.3010
-0.3010 UP </s> -0.3010
-0.3010 V </s> -0.3010
-0.3010 VARIABLE </s> -0.3010
-0.3010 VOID </s> -0.3010
-0.3010 W </s> -0.3010
-0.3010 WHILE </s> -0.3010
-0.3010 X </s> -0.3010
-0.3010 Y </s> -0.3010
-0.3010 Z </s> -0.3010

\3-grams:
-0.3010 <s> A </s>
-0.3010 <s> AND </s>
-0.3010 <s> APOSTROPHE </s>
-0.3010 <s> AT </s>
-0.3010 <s> AUTO </s>
-0.3010 <s> B </s>
-0.3010 <s> BACKSLASH </s>
-0.3010 <s> BACKSPACE </s>
-0.3010 <s> BOOL </s>
-0.3010 <s> BREAK </s>
-0.3010 <s> C </s>
-0.3010 <s> CAPS </s>
-0.3010 <s> CASE </s>
-0.3010 <s> CATCH </s>
-0.3010 <s> CLASS </s>
-0.3010 <s> COLON </s>
-0.3010 <s> COMMA </s>
-0.3010 <s> CONST </s>
-0.3010 <s> CONTINUE </s>
-0.3010 <s> CUT </s>
-0.3010 <s> D </s>
-0.3010 <s> DEFINE </s>
-0.3010 <s> DELETE </s>
-0.3010 <s> DIVIDE </s>
-0.3010 <s> DO </s>
-0.3010 <s> DOLLAR </s>
-0.3010 <s> DOT </s>
-0.3010 <s> DOUBLE </s>
-0.3010 <s> DOWN </s>
-0.3010 <s> E </s>
-0.3010 <s> EIGHT </s>
-0.3010 <s> ELSE </s>
-0.3010 <s> ENDIF </s>
-0.3010 <s> EQUAL </s>
-0.3010 <s> EXCLUSIVE OR
-0.3010 <s> EXTERN </s>
-0.3010 <s> F </s>
-0.3010 <s> FALSE </s>
-0.3010 <s> FIVE </s>
-0.3010 <s> FLOAT </s>
-0.3010 <s> FOR </s>
-0.3010 <s> FOUR </s>
-0.3010 <s> FRIEND </s>
-0.3010 <s> FUNCTION </s>
-0.3010 <s> G </s>
-0.3010 <s> H </s>
-0.3010 <s> HASHTAG </s>
-0.3010 <s> I </s>
-0.3010 <s> IF </s>
-0.3010 <s> IFDEF </s>
-0.3010 <s> INCLUDE </s>
-0.3010 <s> INLINE </s>
-0.3010 <s> INT </s>
-0.3010 <s> J </s>
-0.3010 <s> K </s>
-0.3010 <s> L </s>
-0.3010 <s> LEFT </s>
-0.3010 <s> LEFT_BIG_BRACKET </s>
-0.3010 <s> LEFT_BRACKET </s>
-0.3010 <s> LEFT_SQUARE_BRACKET </s>
-0.3010 <s> LESS </s>
-0.3010 <s> LONG </s>
-0.3010 <s> M </s>
-0.3010 <s> MARK </s>
-0.3010 <s> MODEL </s>
-0.3010 <s> MORE </s>
-0.3010 <s> MULTIPLY </s>
-0.3010 <s> N </s>
-0.3010 <s> NEGATE </s>
-0.3010 <s> NEW </s>
-0.3010 <s> NINE </s>
-0.3010 <s> O </s>
-0.3010 <s> ONE </s>
-0.3010 <s> OPERATOR </s>
-0.3010 <s> OR </s>
-0.3010 <s> P </s>
-0.3010 <s> PLUS </s>
-0.3010 <s> PRAVITE </s>
-0.3010 <s> PUBLIC </s>
-0.3010 <s> Q </s>
-0.3010 <s> QUESTION </s>
-0.3010 <s> R </s>
-0.3010 <s> RETURN </s>
-0.3010 <s> RIGHT </s>
-0.3010 <s> RIGHT_BIG_BRACKET </s>
-0.3010 <s> RIGHT_BRACKET </s>
-0.3010 <s> RIGHT_SQUARE_BRACKET </s>
-0.3010 <s> S </s>
-0.3010 <s> SEMICOLON </s>
-0.3010 <s> SEVEN </s>
-0.3010 <s> SHORT </s>
-0.3010 <s> SIX </s>
-0.3010 <s> SIZEOF </s>
-0.3010 <s> SIZE_T </s>
-0.3010 <s> SPACE </s>
-0.3010 <s> STATIC </s>
-0.3010 <s> STRING </s>
-0.3010 <s> STRUCT </s>
-0.3010 <s> SWITCH </s>
-0.3010 <s> T </s>
-0.3010 <s> TAB </s>
-0.3010 <s> TEMPLATE </s>
-0.3010 <s> TEN </s>
-0.3010 <s> THIS </s>
-0.3010 <s> THREE </s>
-0.3010 <s> THROW </s>
-0.3010 <s> TRUE </s>
-0.3010 <s> TWO </s>
-0.3010 <s> TYPEDEF </s>
-0.3010 <s> U </s>
-0.3010 <s> UNDERLINE </s>
-0.3010 <s> UNSIGNED </s>
-0.3010 <s> UP </s>
-0.3010 <s> V </s>
-0.3010 <s> VARIABLE </s>
-0.3010 <s> VOID </s>
-0.3010 <s> W </s>
-0.3010 <s> WHILE </s>
-0.3010 <s> X </s>
-0.3010 <s> Y </s>
-0.3010 <s> Z </s>
-0.3010 EXCLUSIVE OR </s>

\end\
